tree
version=v2
num_class=3
num_tree_per_iteration=3
label_index=0
max_feature_idx=13
objective=multiclass num_class:3
feature_names=num_of_people payment_method total_price female_age_lower female_age_upper male_age_lower male_age_upper prefecture_event female_price male_price interest age gender prefecture_user
feature_infos=[0:9999] 9999:0:1:2 [500:36000] [20:50] [20:9999] [0:68] [20:9999] 12:26:22:13:39:27:10:25:0:11:33:32:19:21:2:7:14:9:43:34:41:42:36:45:24:28:8:40:29:20:15:44:23:16:6:5:31:18:17:46:1:30:4:35:37:38 [0:28001500] [0:106000] 9999:12:0:1:2:4:5:6:7:8:9:10:11 [20:9999] 9999:0 12:13:10:26:11:22:27:39:0:25:33:7:21:24:28:19:32:9:2:20:14:34:23:41:43:42:8:40:36:29:45:6:15:44:18:9999:16:31:17:5:35:30:46:1:37:47:4:38
tree_sizes=1795 2202 994

Tree=0
num_leaves=13
num_cat=4
split_feature=0 7 13 4 8 13 13 4 0 2 0 2
split_gain=122595 4605.56 717.112 478.403 279.749 144.432 134.757 126.069 7.27596e-12 3.63798e-12 1.13687e-13 2.84217e-14
threshold=5002.5000000000009 0 1 34.500000000000007 2250.0000000000005 2 3 30.500000000000004 1.5000000000000002 6250.0000000000009 3.0000000000000004 29500.000000000004
decision_type=2 1 1 2 2 1 1 2 2 2 2 2
left_child=8 3 7 5 -5 -2 -4 -3 9 -1 -10 -12
right_child=1 2 6 4 -6 -7 -8 -9 10 -11 11 -13
leaf_value=-0.075000001676380629 0.10346133845506481 0.096766178423426774 0.10382783827864456 0.07307538351157776 0.060075948244882472 0.075909364154391423 0.1170267233502478 0.088753061281963655 -0.075000001676380629 -0.075000001676380629 -0.075000001676380629 -0.075000001676380629
leaf_count=66790 4730 70010 73361 62389 92433 178248 28214 119717 1663 64116 542 130
internal_value=0 0.833883 0.972233 0.714464 0.653144 0.766436 1.07519 0.916991 -0.75 -0.75 -0.75 -0.75
internal_count=762343 629102 291302 337800 154822 182978 101575 189727 133241 130906 2335 672
cat_boundaries=0 2 4 317 319
cat_threshold=14864 96 507125523 43168 2414100769 0 0 0 0 0 0 0 0 0 0 0 0 0 0 0 0 0 0 0 0 0 0 0 0 0 0 0 0 0 0 0 0 0 0 0 0 0 0 0 0 0 0 0 0 0 0 0 0 0 0 0 0 0 0 0 0 0 0 0 0 0 0 0 0 0 0 0 0 0 0 0 0 0 0 0 0 0 0 0 0 0 0 0 0 0 0 0 0 0 0 0 0 0 0 0 0 0 0 0 0 0 0 0 0 0 0 0 0 0 0 0 0 0 0 0 0 0 0 0 0 0 0 0 0 0 0 0 0 0 0 0 0 0 0 0 0 0 0 0 0 0 0 0 0 0 0 0 0 0 0 0 0 0 0 0 0 0 0 0 0 0 0 0 0 0 0 0 0 0 0 0 0 0 0 0 0 0 0 0 0 0 0 0 0 0 0 0 0 0 0 0 0 0 0 0 0 0 0 0 0 0 0 0 0 0 0 0 0 0 0 0 0 0 0 0 0 0 0 0 0 0 0 0 0 0 0 0 0 0 0 0 0 0 0 0 0 0 0 0 0 0 0 0 0 0 0 0 0 0 0 0 0 0 0 0 0 0 0 0 0 0 0 0 0 0 0 0 0 0 0 0 0 0 0 0 0 0 0 0 0 0 0 0 0 0 0 0 0 0 0 0 0 0 0 0 0 0 0 0 0 0 0 0 0 0 0 0 0 0 0 0 32768 20979840 1795
shrinkage=0.1


Tree=1
num_leaves=10
num_cat=5
split_feature=1 7 11 11 13 7 13 5 2
split_gain=21683.4 4626.52 2524.07 992.061 701.19 367.434 352.5 309.945 7.27596e-12
threshold=0 1 27.500000000000004 29.500000000000004 2 3 4 21.500000000000004 27750.000000000004
decision_type=1 1 2 2 1 1 1 2 2
left_child=1 2 7 5 -5 -3 -4 -1 -2
right_child=8 3 6 4 -6 -7 -8 -9 -10
leaf_value=-0.0042842674826615804 -0.075000001676380629 -0.024247463890806811 -0.042300557534685583 -0.0041663880072341309 -0.035010707420948327 -0.038596462084191985 0.015273900371574115 -0.018354748452822322 -0.075000001676380629
leaf_count=66645 133071 130021 2403 82189 20759 58444 193926 74715 170
internal_value=0 -0.0838827 0.0356177 -0.222345 -0.103946 -0.287047 0.145661 -0.117211 -0.75
internal_count=762343 629102 337689 291413 102948 188465 196329 141360 133241
cat_boundaries=0 313 314 316 318 631
cat_threshold=0 0 0 0 0 0 0 0 0 0 0 0 0 0 0 0 0 0 0 0 0 0 0 0 0 0 0 0 0 0 0 0 0 0 0 0 0 0 0 0 0 0 0 0 0 0 0 0 0 0 0 0 0 0 0 0 0 0 0 0 0 0 0 0 0 0 0 0 0 0 0 0 0 0 0 0 0 0 0 0 0 0 0 0 0 0 0 0 0 0 0 0 0 0 0 0 0 0 0 0 0 0 0 0 0 0 0 0 0 0 0 0 0 0 0 0 0 0 0 0 0 0 0 0 0 0 0 0 0 0 0 0 0 0 0 0 0 0 0 0 0 0 0 0 0 0 0 0 0 0 0 0 0 0 0 0 0 0 0 0 0 0 0 0 0 0 0 0 0 0 0 0 0 0 0 0 0 0 0 0 0 0 0 0 0 0 0 0 0 0 0 0 0 0 0 0 0 0 0 0 0 0 0 0 0 0 0 0 0 0 0 0 0 0 0 0 0 0 0 0 0 0 0 0 0 0 0 0 0 0 0 0 0 0 0 0 0 0 0 0 0 0 0 0 0 0 0 0 0 0 0 0 0 0 0 0 0 0 0 0 0 0 0 0 0 0 0 0 0 0 0 0 0 0 0 0 0 0 0 0 0 0 0 0 0 0 0 0 0 0 0 0 0 0 0 0 0 0 0 0 0 0 0 0 0 0 0 0 0 0 0 0 32768 14848 2658869123 38017 238716179 10465 2252636197 40960 0 0 0 0 0 0 0 0 0 0 0 0 0 0 0 0 0 0 0 0 0 0 0 0 0 0 0 0 0 0 0 0 0 0 0 0 0 0 0 0 0 0 0 0 0 0 0 0 0 0 0 0 0 0 0 0 0 0 0 0 0 0 0 0 0 0 0 0 0 0 0 0 0 0 0 0 0 0 0 0 0 0 0 0 0 0 0 0 0 0 0 0 0 0 0 0 0 0 0 0 0 0 0 0 0 0 0 0 0 0 0 0 0 0 0 0 0 0 0 0 0 0 0 0 0 0 0 0 0 0 0 0 0 0 0 0 0 0 0 0 0 0 0 0 0 0 0 0 0 0 0 0 0 0 0 0 0 0 0 0 0 0 0 0 0 0 0 0 0 0 0 0 0 0 0 0 0 0 0 0 0 0 0 0 0 0 0 0 0 0 0 0 0 0 0 0 0 0 0 0 0 0 0 0 0 0 0 0 0 0 0 0 0 0 0 0 0 0 0 0 0 0 0 0 0 0 0 0 0 0 0 0 0 0 0 0 0 0 0 0 0 0 0 0 0 0 0 0 0 0 0 0 0 0 0 0 0 0 0 0 0 0 0 0 0 0 0 0 0 0 0 0 0 0 0 0 0 0 0 0 0 0 0 0 0 0 0 0 0 0 0 0 0 0 0 0 0 0 0 0 0 0 0 0 0 0 0 0 0 0 32768
shrinkage=0.1


Tree=2
num_leaves=3
num_cat=1
split_feature=1 2
split_gain=247395 2.91038e-11
threshold=0 27750.000000000004
decision_type=1 2
left_child=-1 -2
right_child=1 -3
leaf_value=-0.075000001676380629 0.15000000335276126 0.15000000335276126
leaf_count=629102 133071 170
internal_value=0 1.5
internal_count=762343 133241
cat_boundaries=0 313
cat_threshold=0 0 0 0 0 0 0 0 0 0 0 0 0 0 0 0 0 0 0 0 0 0 0 0 0 0 0 0 0 0 0 0 0 0 0 0 0 0 0 0 0 0 0 0 0 0 0 0 0 0 0 0 0 0 0 0 0 0 0 0 0 0 0 0 0 0 0 0 0 0 0 0 0 0 0 0 0 0 0 0 0 0 0 0 0 0 0 0 0 0 0 0 0 0 0 0 0 0 0 0 0 0 0 0 0 0 0 0 0 0 0 0 0 0 0 0 0 0 0 0 0 0 0 0 0 0 0 0 0 0 0 0 0 0 0 0 0 0 0 0 0 0 0 0 0 0 0 0 0 0 0 0 0 0 0 0 0 0 0 0 0 0 0 0 0 0 0 0 0 0 0 0 0 0 0 0 0 0 0 0 0 0 0 0 0 0 0 0 0 0 0 0 0 0 0 0 0 0 0 0 0 0 0 0 0 0 0 0 0 0 0 0 0 0 0 0 0 0 0 0 0 0 0 0 0 0 0 0 0 0 0 0 0 0 0 0 0 0 0 0 0 0 0 0 0 0 0 0 0 0 0 0 0 0 0 0 0 0 0 0 0 0 0 0 0 0 0 0 0 0 0 0 0 0 0 0 0 0 0 0 0 0 0 0 0 0 0 0 0 0 0 0 0 0 0 0 0 0 0 0 0 0 0 0 0 0 0 0 0 0 0 0 32768
shrinkage=0.1



feature importances:
prefecture_user=5
total_price=4
num_of_people=3
prefecture_event=3
payment_method=2
female_age_upper=2
age=2
male_age_lower=1
female_price=1

pandas_categorical:null
